Language model created by QuickLM on Sun Dec 10 08:28:01 EST 2023
Copyright (c) 1996-2010 Carnegie Mellon University and Alexander I. Rudnicky

The model is in standard ARPA format, designed by Doug Paul while he was at MITRE.

The code that was used to produce this language model is available in Open Source.
Please visit http://www.speech.cs.cmu.edu/tools/ for more information

The (fixed) discount mass is 0.5. The backoffs are computed using the ratio method.
This model based on a corpus of 1 sentences and 12 words

\data\
ngram 1=12
ngram 2=11
ngram 3=10

\1-grams:
-1.3802 </s> -0.3010
-1.3802 <s> -0.2825
-1.3802 CHATGPT -0.2825
-1.3802 COLLEGE -0.2825
-1.3802 FACEBOOK -0.2825
-1.3802 GOOGLEDRIVE -0.2825
-1.3802 GOOGLRMEET -0.2825
-1.3802 INSTAGRAM -0.2825
-1.3802 OPEN -0.2825

-1.3802 WHATSAPP -0.2825

\2-grams:
-0.3010 <s> OPEN 0.0000
-0.3010 CHATGPT THIAGARAJAR 0.0000
-0.3010 COLLEGE </s> -0.3010
-0.3010 FACEBOOK WHATSAPP 0.0000
-0.3010 GOOGLEDRIVE GOOGLRMEET 0.0000
-0.3010 GOOGLRMEET INSTAGRAM 0.0000
-0.3010 INSTAGRAM FACEBOOK 0.0000
-0.3010 OPEN GOOGLEDRIVE 0.0000
-0.3010 WHATSAPP CHATGPT 0.0000

\3-grams:
-0.3010 <s> OPEN GOOGLEDRIVE
-0.3010 CHATGPT 
-0.3010 FACEBOOK WHATSAPP CHATGPT
-0.3010 GOOGLEDRIVE GOOGLRMEET INSTAGRAM
-0.3010 GOOGLRMEET INSTAGRAM FACEBOOK
-0.3010 INSTAGRAM FACEBOOK WHATSAPP
-0.3010 OPEN GOOGLEDRIVE GOOGLRMEET
-0.3010 WHATSAPP CHATGPT THIAGARAJAR

\end\
